0.069671,-0.67079,-0.72694,-0.40865,-0.52914,-0.049866,-0.86503,-0.78312,-1.1607,-0.26352,-0.034931,-0.37586,-0.89749,-0.0020567,-1.8023,0.33359,-0.0012895,0.52481,-1.396,0.51073,-0.19757,-1.1427,-0.61834,-1.6765,-1.1816,-0.48045,-1.03,-1.2508,-0.39133,-1.3701,0.019775,-1.0754,0.47152,-0.61043,-0.1001,-0.43237,0.42828,-1.2904,-1.4809,0.71644,-0.92863,-1.041,-0.3067,-0.76287,-0.18934,-1.4649,-1.471,-0.72398,-0.10107,-0.31675,-0.222,0.38873,-0.73549,0.060551,-0.98411,-1.1885,-0.30121,-0.68771,-1.02,0.32114,0.25812,-0.24338,0.69614,-0.58512,-0.1179,-0.16844,-0.64805,-0.20491,-0.89645,-0.55431,0.6999,-1.2584,-1.286,0.36712,-1.264,-0.51411,-0.26385,-0.012932,-0.96155,-1.0668,0.60994,0.049872,-1.5048,-1.4672,-1.1121,-0.85308,-0.90737,-1.4049,-0.75646,-1.064,0.12381,0.023186,0.72175,-0.34089,-0.60846,-1.5328,0.59359,-1.4657,-1.6955,0.27572,-1.1013,-1.1721,-0.88573,-0.9802,-0.85353,-1.1134,0.12795,-1.4366,0.60776,-0.19484,-0.43077,-0.6011,-0.029675,0.45294,-1.1929,0.2908,-1.5017,0.43317,-0.82798,-0.63398,-0.81142,0.042371,-1.1613,-1.0336,0.28096,0.052057,0.040793,-1.1074,-1.2558,0.77795,-0.95083,0.12299,-1.092,-0.66082,0.21638,-0.30164,-0.35012,-0.6419,-0.72364,0.87262,0.71403,-0.34694,0.29749,-1.1461,-0.54917,-1.182,0.31371,-0.098845,0.17413,-1.2227,-0.24428,-0.37471,-1.3841,-0.98748,-0.33642,-0.61129,-0.95666,0.348,0.57764,-1.6939,0.59083,-1.3941,-1.1938,-1.4761,-0.71563,-0.89127,-1.4195,0.5066,-0.11141,-0.45763,-1.733,0.11874,-0.014151,-0.9154,0.10816,0.44922,0.25039,-0.39994,-0.15852,-0.77458,-0.66377,-1.0977,-0.075697,0.31525,-1.4692,-1.2006,0.07328,-0.2607,0.0981,-1.2557,-0.99763,-0.01686,-0.49905,0.18879,-1.5716,-1.357,-1.3814,-0.57044,-1.3345,0.51948,-1.0057,-0.68058,-0.72803,0.8616,-0.51465,-1.3254,-0.16525,-1.4097,-0.93616,0.24664,0.043254,-1.189,-0.72872,0.27905,-0.4576,0.44787,-1.3215,-1.2904,-0.71563,-0.74286,-0.50669,-0.60772,-0.61145,-0.9705,-0.41207,-0.039444,0.062996,-1.1753,-1.7369,-0.055979,-0.67758,-0.26421,-1.3602,-0.80447,0.077351,0.21103,-0.40642,-1.5744,-0.48526,-0.79749,-0.37704,-1.3439,-0.37305,0.60881,-0.067579,-1.3291,-0.29772,-1.2321,-1.7972,0.12629,-0.931,-1.054,-0.47882,0.61356,0.11415,0.27128
0.26399,-1.1901,-1.1318,-0.19034,-0.73701,0.45503,0.39502,-1.4949,-0.58523,-0.44584,0.35568,0.7797,-1.2906,-1.5298,-0.26,0.62882,-0.016604,0.81304,0.70534,-0.21147,-0.023638,0.033431,0.34957,-0.11785,0.13229,-0.45793,-1.0703,-1.4186,-0.58486,-0.27728,-1.1148,-0.55642,-1.8876,-0.020919,-1.6119,-0.57241,-1.0992,0.038385,-0.036822,-1.421,0.20086,-1.5602,0.70008,-1.0584,0.035576,0.11111,0.48773,-0.31748,-0.69629,-1.4053,-0.616,0.60297,-1.6144,-0.41758,-1.0236,-0.96682,-0.14259,0.82562,0.15629,-0.13185,0.52764,-0.55538,0.85145,-1.1019,0.31676,-0.54165,-0.91957,-0.65945,-0.29194,-1.6566,0.13986,-0.73402,-0.9586,-0.31477,0.044186,-0.3721,-0.37658,-1.1522,-0.6255,-0.1922,0.010455,-0.98889,0.053669,0.23883,-0.50964,-0.7614,-0.67653,-1.449,0.2125,-0.42484,-1.7365,-0.94922,-1.5859,-1.6365,-0.17242,-1.0739,0.00073762,-0.27219,-1.1379,-1.6034,-0.37743,-0.18289,0.42833,-1.0931,-0.1758,-0.25385,-0.57087,0.07221,0.020642,-0.45313,-1.1065,0.53354,-1.4445,0.6817,-0.6924,0.40133,-0.82521,-1.3331,-0.5411,-1.9074,-1.4305,0.6422,-0.88635,-0.15898,0.26255,-1.4325,-1.0045,0.025589,-0.50675,-0.22812,-0.97448,-0.062915,-0.60215,-1.3423,0.17624,-0.97228,-0.35884,-0.66267,-1.1844,-0.8155,-0.18728,0.2221,-0.37861,-1.5495,-0.41147,-0.16083,-0.71375,-0.0024955,-0.21565,-1.6989,0.29746,0.63313,-0.96342,-0.41882,-0.50164,-1.1574,-1.2232,0.20779,-1.1101,-0.070011,0.074764,-0.53833,0.051174,-0.87497,-0.94426,-1.1712,-1.5285,-0.39746,-1.0275,0.06938,0.37151,-0.79469,-0.66091,-0.40138,-0.17178,-1.1098,-0.82791,0.718,-0.36693,-1.3068,-0.53859,-0.23014,-0.82121,0.70571,-1.236,-1.3627,-0.1072,-1.365,-0.50321,-0.43155,-1.0154,-1.048,-0.20894,-1.3522,0.88566,0.63543,-0.7493,0.20253,-0.023576,0.70777,-1.2441,-0.098542,-0.10525,-0.10961,0.40677,-0.53398,-0.29173,0.091486,0.42893,0.36074,-0.97501,-0.82876,-1.4772,-1.3826,-0.037686,-1.0931,0.42922,0.47028,-1.373,0.073804,-0.0055788,-0.1584,-0.077654,-0.556,0.83352,-0.23243,0.21784,-0.71016,-0.1897,-1.2584,-1.285,0.14054,-0.55322,0.17526,-1.2835,-1.3475,-0.22009,-1.1804,-1.0861,-1.731,-1.6437,0.44822,-1.1689,-1.3947,-1.2024,0.42962,-0.09795,-0.33424,-0.68002,-0.34462,-0.5418,-0.53252,-1.2139,-0.0028021,-1.6818,-0.75708
-1.4395,-0.0058601,-1.1279,-0.32057,-0.32763,-0.53239,-0.93944,-0.80712,-1.6696,-1.5129,0.53197,-0.32414,0.049813,-0.007938,-1.1577,-0.23939,-1.015,-1.6029,0.25691,-1.05,-1.2973,0.56209,0.12085,-0.18919,-1.019,-1.7756,0.88159,-0.8852,-0.34723,-1.6083,-0.37525,0.6726,-0.60641,-0.67749,-0.61116,-0.098031,-1.3811,-0.85263,-0.89289,-0.37355,-0.3237,-0.26301,0.3715,-0.42215,-1.45,-0.21195,-0.43885,-0.034373,-0.55371,0.59811,-0.19033,-1.4946,-0.89109,0.14542,-0.31738,0.47325,-0.14546,-1.2523,-1.6645,-0.67869,-0.44247,0.34164,-1.2662,-1.4772,0.77858,-0.010017,-1.5642,-1.1435,-1.0093,-0.17495,-1.4376,-0.14757,0.67952,-1.0973,-0.78515,-1.1339,-0.15753,-0.76995,0.5575,-0.53608,-1.1045,-0.1586,-1.211,-0.55154,-0.0091942,0.60502,-0.69445,0.64731,-0.86594,-0.048451,-0.90249,-0.29747,-1.6926,0.016154,0.4907,-0.85162,-0.76205,-1.1208,-0.83652,-0.33687,-0.14773,0.47301,-1.3446,-0.031684,0.036578,-0.84037,-0.62594,-1.2924,0.69771,0.23139,-0.42292,-0.53713,-0.48272,0.23017,-0.67843,0.10228,-0.91049,-0.27186,0.50465,-1.0583,-0.63582,-0.67484,-1.0266,-1.3529,-0.24252,-1.673,-1.0937,-0.43875,-0.60418,-1.0179,-1.3821,-0.16935,-1.1672,-0.12712,-0.74103,-0.40783,-0.78288,-1.565,-0.79101,-0.75277,-1.328,-0.14296,-0.81226,0.19547,0.0082189,-0.68796,0.19756,-1.2817,-0.055407,-0.0092275,-1.605,-0.99484,-1.2584,-1.1745,-0.35697,-0.51735,-1.3285,-1.4203,-0.41835,0.45271,-0.62939,0.15252,-1.4995,-0.22041,-0.044782,-0.75731,-1.6149,-0.32351,0.01585,-0.6609,-1.053,-1.0179,-0.4821,-0.95783,-0.15985,-0.50288,0.095231,-0.21282,-1.2284,-0.60059,0.040205,-0.20878,-0.43274,-0.42008,-0.40893,-0.019537,0.15471,0.41556,0.45549,-1.0793,0.61472,-0.72552,0.63375,-1.1226,-1.2802,-0.27256,0.25433,-0.56471,-0.10093,-0.36785,-1.75,-1.0591,-0.5727,-0.61333,-0.02487,-1.0225,0.037689,-0.9386,-0.055408,0.033338,-0.87278,-1.3823,-1.4503,0.055673,-0.72097,-0.36998,-0.70064,-1.6954,-1.0054,-0.97609,-0.41564,0.27006,0.1694,0.57586,-0.52702,-0.80392,0.31479,-1.2727,-1.5184,0.28139,-0.60652,-0.46339,-1.8361,-1.6131,-0.74556,-0.75886,-0.27417,-0.29806,0.51675,-1.465,0.69125,0.20751,0.29234,-1.1863,-1.5908,0.39672,-1.0767,-0.21078,-0.40689,-0.011754,0.1546,0.21512,-1.088,-1.4683,0.38818,-1.6918
0.48893,-1.6562,-1.4094,-1.0759,-0.70678,-1.5844,-0.0089884,-1.7055,-0.93491,-1.0866,-0.10242,0.47844,-1.5159,-0.84472,0.058737,-1.3808,0.20678,-0.68907,0.21542,-0.87609,-0.112,-0.88554,0.29682,-0.5447,-0.94359,-0.26548,-0.85842,-0.4355,-1.1891,-1.3987,-0.099102,0.19289,-0.85306,0.20638,-0.20809,0.30187,-0.23201,-1.3314,-1.1246,0.89035,0.11422,0.67344,-1.1051,-1.4019,0.10687,-0.81496,-1.1236,-1.7702,-0.9313,-0.28049,-0.5165,0.31303,-1.0041,-1.23,0.059512,0.011474,-0.98046,-1.1125,-0.037095,0.078235,-1.2887,0.60284,-0.23779,0.55679,0.032646,-0.80135,-0.8093,0.87266,-1.1926,-0.39222,0.51278,-1.363,0.80262,-0.99442,-0.65779,-1.1737,-0.73128,0.22207,0.1572,-0.18711,0.80323,-0.19348,-1.5639,-0.076722,0.39234,-0.77573,-0.59618,-0.037447,0.5547,-1.1057,-1.1806,-0.2335,-0.76644,-0.23359,-1.2794,-1.0798,-0.42992,-1.8238,-1.1187,0.46875,0.24545,0.10069,-1.553,-1.2301,-0.96163,-0.82824,-0.55268,-0.53754,0.56375,-0.87299,-1.341,-0.38776,-1.6832,-1.4524,-1.7429,-0.65565,-0.67484,-1.072,-0.52774,0.20221,0.3759,-0.33121,0.35221,-0.95427,-1.335,-0.80636,-0.62936,-0.81086,0.1773,-0.8803,-1.1053,-0.79962,-0.33713,-1.0985,-0.27027,-1.7232,-0.90564,0.13126,-0.72543,-0.53797,0.70759,-1.3898,-0.13674,-1.1643,-0.96481,-0.69989,0.3432,-0.86808,-0.8046,-1.441,-0.92789,-0.72769,0.13897,-1.3085,-0.83506,-0.54937,-0.36318,0.76417,0.43067,-0.44003,-1.852,0.097321,-0.84417,-0.98646,-0.15553,-1.0796,-1.6082,0.40218,-0.43061,-1.0634,-1.0818,-0.9745,0.20618,0.64398,-1.5945,-0.56666,-0.87368,0.54866,-1.2627,0.42637,-1.2167,-1.5364,-0.44501,-0.51904,-0.93614,-0.62525,-0.75067,-0.2253,-0.48939,-0.56776,0.21222,-1.0364,-0.87209,0.077114,-0.48931,0.47609,-0.49613,-0.90578,-0.83065,-0.47705,0.039448,-1.1966,0.061521,0.31579,-0.96209,0.039061,0.42896,0.11145,-0.11986,0.62753,0.8677,-0.55274,0.053871,-0.91694,0.81616,0.22544,-0.32101,-0.60628,-0.25021,-0.13827,-1.1581,-0.055906,-0.16042,-1.0973,0.25368,0.37023,-0.10144,-0.94206,0.13969,-0.13323,-0.54255,-1.2408,-0.023957,0.51017,-0.97519,0.8258,-0.065361,-0.96633,-0.80857,0.2895,-1.6806,-0.70375,-0.93466,-0.95463,-1.3221,0.34476,-0.8325,0.51133,-0.76019,-0.20944,-1.0188,0.1328,0.47039,-0.15616,-0.75567,0.33957
-1.2859,-0.44736,0.60586,-0.91575,-0.098332,-0.85946,-1.1008,-1.4709,-0.030515,-1.2819,-1.4386,-1.5616,0.18822,-1.5059,-1.0179,-0.0051947,-0.20594,-0.82944,-1.6969,-0.090621,-0.38628,-0.6397,-0.74539,-0.44069,-0.015393,-1.2154,0.19166,-0.21594,0.36188,0.23693,-0.95099,0.078669,0.0062087,0.052459,-0.74382,0.50897,-1.0721,-1.3921,0.059772,-0.038878,-0.57469,0.11142,-0.43202,-0.17012,-0.28885,-0.39391,-0.32497,-1.1645,-0.38816,-0.56724,0.23479,-1.0571,0.077702,-1.2331,-0.3987,-0.28562,-0.48618,-0.87027,-0.35916,-1.7367,-0.8394,0.61766,0.32544,-0.093903,0.62537,-1.486,0.36484,0.033708,-1.1918,-1.6528,-0.62554,-0.79542,-0.49923,-1.4484,0.31089,-1.2353,-0.14285,-0.75999,0.18494,-0.36696,-0.089061,-0.76793,-0.58575,0.019037,0.41625,0.085273,-1.4387,-1.4548,0.33801,0.1417,-1.25,-0.50661,0.34493,0.038156,-0.2658,-1.1197,-0.97234,-0.66862,-0.7084,-0.81392,-0.35211,-0.76992,-1.202,-0.71247,-0.56481,-0.70408,0.51202,-0.68348,-1.5319,-1.1994,-1.8355,0.25305,-0.386,-0.873,-1.1253,-0.2554,0.76943,-0.87082,-0.33575,-1.2579,-0.76735,-1.3176,-1.7451,-0.63878,-0.68331,-0.88732,-0.28047,0.019269,-1.3651,-0.11289,-0.35437,0.054368,-0.69568,-0.92123,-0.45067,-0.61508,-0.6752,-0.52626,-0.16008,-0.92922,-1.5849,-0.10313,0.40924,-0.69836,0.31089,-0.67625,0.0023475,-0.31595,-0.96089,-1.5391,-0.61039,0.2545,0.23864,-0.2623,-0.71126,-1.4034,-0.61987,-0.95152,-0.80387,-0.96703,-1.0085,0.15543,0.43113,0.24055,0.069507,0.45299,-1.1191,-0.59706,-0.74794,0.011703,0.16029,-0.057769,-0.14377,-0.42712,-1.6826,-0.98885,0.33704,0.30068,0.43776,-0.78348,0.65042,-0.63182,-0.81584,-0.78532,0.30124,-0.706,-0.99366,0.03165,0.071154,-0.7113,-1.7173,-0.23385,0.61067,-1.2855,-0.8878,-1.1704,-0.013387,0.35738,-0.14636,-0.55744,-0.79475,-1.4322,-0.23912,-1.3708,-1.0523,-0.7064,-0.81202,-0.22865,-0.49303,-1.0759,-0.81125,-0.38527,-0.39091,0.0042901,-0.76325,-0.6449,0.36933,0.32134,-0.50143,-1.6174,-1.7516,-0.4787,-0.038206,-1.1733,-0.11543,-1.0462,-1.4588,-0.50448,-0.62813,-0.66315,-0.76155,-1.1053,0.096569,-1.3748,0.78435,0.43717,-1.4964,-1.0125,-0.27783,-1.3794,-0.39999,-0.33727,-0.52368,0.10698,0.75119,-1.1716,-1.0495,-0.046306,-0.02404,0.052912,-0.89087,0.0066266,0.4796,-0.39943,-0.040115,-0.94069
-1.7629,-0.54399,-0.60942,-0.11812,-0.035485,-1.4704,0.20468,0.17947,0.025413,-0.24951,-0.994,-1.4801,-0.6966,0.70129,-0.099668,-1.5528,-1.0353,-0.059912,-1.061,-0.45831,0.40103,-0.19886,-1.0511,0.097358,0.19279,0.16809,-1.5824,-0.28289,-0.8672,-0.94476,-0.53316,-1.0508,-1.6736,-0.45047,-0.017664,-0.99325,0.53868,-0.79736,-0.47663,-0.034611,-0.054678,-0.43231,-0.91799,0.41869,-0.94376,-0.38276,-0.17145,-1.779,-1.1958,-0.15959,-0.59131,-0.1954,0.14823,-0.93562,-1.162,-1.6284,0.18502,-1.2091,-0.86438,0.14398,-1.411,-1.2246,-0.58763,-0.073578,0.027269,-0.82997,0.33867,-0.55825,-0.033509,-0.15059,0.33825,-0.17417,-0.98247,0.31227,0.079146,-1.2202,0.50808,0.29841,-0.31055,-0.85806,-0.33697,0.41568,-1.3753,-0.9829,-0.44314,-0.046241,-0.21732,-0.80301,-1.8242,0.38827,-0.18594,-0.75585,-1.215,0.38041,-0.27672,-0.92528,-0.65579,-0.14967,-0.36156,-0.15966,-0.65656,0.57822,-1.1536,-0.58166,0.11514,-0.8346,-0.28338,-1.0129,-1.266,-0.070809,-0.91534,0.7766,0.33326,-0.98295,-1.2718,-1.1322,-0.59834,-0.47387,0.7237,-1.6461,-1.4126,-0.15795,-0.73435,-0.54097,-0.42804,0.20133,-0.5268,0.22595,0.3339,0.065776,-0.56494,-0.85138,-1.0926,-0.60807,0.081456,-0.12787,-0.29271,-0.86161,0.49082,-0.57777,-1.2359,0.6713,-0.87938,0.53325,-1.3512,-0.79872,0.28793,-0.36976,-0.77788,-1.0408,-0.22223,0.03582,0.68025,-0.5109,-0.96618,0.07052,-0.71615,-0.77151,-0.76355,-0.94474,-1.1315,-0.13643,-0.033645,-1.6377,-0.61517,-0.42304,-1.5249,0.50594,-1.0153,0.16964,-1.271,-0.99503,-0.22051,0.027261,0.69354,-0.084942,-0.65323,-0.014096,-0.25087,-0.81299,0.17224,-0.081502,-1.0053,-0.55432,-0.39085,-0.28216,-0.51437,0.34368,-0.39285,0.11902,0.044707,-0.27513,-0.61352,-0.24427,-1.2382,0.3631,-0.68034,0.10976,-0.11365,-1.9835,-0.40881,-0.42275,-0.26223,-0.19182,-1.2803,-0.072076,-1.3303,-0.7927,0.69064,-1.1266,-1.0942,0.082648,-0.62781,-0.52432,-1.1054,-0.18897,-0.35825,0.21051,0.93402,-0.56035,-0.99443,-0.96882,-0.6309,-0.48242,0.25602,0.3818,-0.62596,-0.33753,-0.38875,-0.21158,0.042295,0.13616,-1.5869,-0.015109,-0.80609,-1.4834,-0.97893,0.19199,-0.49394,-0.13552,-1.6255,-0.19853,-0.65611,-0.034751,-0.18087,0.49835,0.53752,-0.39903,-0.40537,0.079476,0.64542,-0.73032,-0.97041,0.084704,0.087603,-1.24
-0.45296,-0.25681,-1.0995,-0.34847,0.036615,0.16875,-0.42626,-0.23931,-0.24842,-1.1805,-0.29404,0.21,-1.0753,-1.2724,-0.46014,-0.44877,-1.8192,0.36696,-0.6802,-0.0075292,0.62986,-0.45971,-1.0719,-0.62096,-1.1542,0.52532,-0.51667,0.34846,0.16872,-1.2323,0.2637,0.30015,0.19919,-1.1953,-0.44731,0.033966,0.47204,-1.404,-0.12387,-1.5539,-0.12218,0.9288,-1.5949,-0.71465,-0.55931,0.39446,-0.3957,-0.45838,0.22316,0.034532,-0.94358,-1.3226,0.32109,-0.15456,-0.18141,-0.19627,-1.9562,-0.50797,-0.026344,-0.84491,-1.5571,-1.191,-0.77354,-0.80964,0.43231,0.42359,-0.088087,-0.81946,0.67418,-1.4553,-0.99578,0.20717,-0.73384,-1.3633,-0.16294,-0.64891,-1.0253,-1.6585,0.068812,0.40484,-1.3262,0.74416,-0.65227,0.075295,0.0097951,0.00087335,0.1369,0.54167,-1.1926,-0.93603,0.16838,-1.3948,-0.24632,-0.08121,0.68088,-0.38444,-0.47571,-0.67887,0.86392,0.33338,-0.17423,-0.41042,-0.66228,-1.061,-0.48516,-1.3661,-0.20475,0.21308,0.39627,-0.77887,-0.26689,-1.1994,0.058576,-1.1622,-1.5954,-0.92447,-0.81693,-0.69008,0.22796,0.037356,-0.77588,0.19558,-0.46079,-1.0857,-1.1675,0.56006,-0.044113,-0.11953,-0.022983,-0.13367,0.077013,-0.39447,-0.34406,-0.29024,-0.50352,-0.26568,-1.4745,0.48034,-0.15055,-0.12147,-0.80757,0.53684,-0.381,0.28977,-0.6278,-1.1023,-0.16365,-0.516,0.55133,-1.3855,-1.0065,-0.13673,-0.78027,-1.9404,-0.68547,-1.7966,-0.30299,0.10801,-1.8163,-0.29834,-0.29897,-0.3632,0.2575,-0.17271,0.60146,0.83826,-0.68502,0.11967,-0.53705,-0.24501,-0.97493,-1.2007,0.40517,-0.56971,-1.897,-0.79137,-0.88683,-1.2972,-1.0286,0.1954,-0.38458,-0.14752,-0.51532,-0.3823,0.62155,0.81069,0.15272,-1.828,-1.1143,-1.6969,0.27469,0.46546,0.26495,0.28904,0.35944,0.20671,0.0529,-0.17503,-0.36524,-0.11256,0.38598,-0.82295,0.004763,-0.0050445,-0.41552,-0.33341,-0.017277,-0.95982,0.011407,-0.36803,-0.72783,-0.41568,-0.41161,0.38981,-0.082533,-0.50925,-1.3485,-1.2335,-0.98847,0.58438,-0.10798,-0.87408,-1.2986,-0.45926,-0.9638,-0.11428,-1.0746,-0.73857,-0.5295,0.70876,-1.4435,-1.4367,-1.3299,-0.93203,-1.5708,-0.27695,-1.3834,0.53625,0.141,-1.1382,-1.6757,-0.9943,0.63184,-1.2419,-0.36646,-1.1974,-1.1038,-0.27138,-0.78332,0.30643,-0.84276,-0.9753,-0.91588,0.52299,-0.84948,-0.77835
-0.14294,-1.7342,-0.77011,-0.54525,-1.3652,-0.33766,-0.89819,-1.4944,-0.69053,0.19937,0.095642,-1.9194,-1.1091,-0.94876,0.025639,-0.78836,-1.2583,-0.13584,-1.1377,-1.265,-0.84087,0.071602,-0.55677,0.41839,0.56509,0.085058,-0.2734,-0.15934,-0.63839,-1.0385,0.73266,0.81678,-1.5423,-0.43138,-1.3109,-1.287,-1.6107,-1.4169,-1.1358,-0.19327,-0.27686,-0.96658,-0.61185,-0.23006,0.5228,-0.27178,-1.3629,-0.27783,-0.25134,-1.3842,-0.88845,0.17932,-0.9286,-0.09155,-0.92797,-1.3311,-0.65897,0.2743,0.13408,-0.57329,-0.10474,-0.13708,-0.96049,-1.0251,-0.9984,-0.23196,-1.1899,0.20273,0.13847,-0.081584,-1.013,0.56907,-1.2437,-0.89881,-0.14081,-1.2331,-0.92933,0.57464,-0.92216,0.71298,-0.8905,0.93125,-1.236,0.39282,-0.77744,-0.22952,-0.28219,-1.3143,-0.7413,-0.46101,-1.2693,-0.096917,0.0052032,-0.029719,-0.68597,0.036962,-0.97079,-0.51688,0.54078,-1.1286,0.47813,-0.75092,-0.18344,-0.50778,-0.54958,0.54904,-0.25946,-1.0876,-0.68905,-1.0102,0.03903,-0.66155,0.53581,-0.33866,0.3605,-0.67281,-0.48613,0.15035,-1.7468,-0.92307,-0.89816,0.88468,-1.4717,-0.80251,-1.2184,-0.035847,-0.097682,-0.80792,-0.95851,-0.13781,-1.1268,-0.12907,-0.21005,0.20967,-0.90289,-1.873,-0.352,-0.57095,0.39152,-0.77886,-0.55746,-0.64489,-0.36081,-0.40056,-0.98547,0.26623,0.032621,-1.0822,0.66584,-0.088594,-0.42052,-1.1208,-1.0045,-0.47682,-0.041409,-0.62189,0.47499,0.60854,-0.46083,0.50553,-0.72854,-0.95008,-0.74466,0.66357,-0.39254,0.78033,-0.39008,-0.50036,-0.097837,0.59505,-0.3961,0.2301,-0.56931,0.022171,-0.87482,-1.1238,-1.4464,-1.5408,-0.27833,0.53605,-1.2402,-1.5157,-0.22783,0.14376,-0.17134,-1.2958,-0.7827,-0.82678,0.31975,-0.2464,-0.80899,0.016491,-1.6054,-0.14516,-0.76158,-0.72201,-1.4538,-1.5358,0.46796,-0.28105,0.8989,0.23777,0.23084,-0.29803,-1.1123,-0.38064,0.1649,-0.35215,-0.096286,0.66638,-1.671,-0.026618,0.1595,-1.0627,-1.0722,-1.2065,-0.25778,-1.1851,-1.5818,0.1848,-1.601,-0.98466,-0.23346,-1.0059,0.067909,-0.36896,-1.2444,0.026283,0.2214,-0.28598,-0.9871,0.34133,-0.63306,-0.037937,-0.59605,-0.70482,-1.6765,0.19579,-1.1514,-0.036553,0.58318,-1.3338,-1.435,0.31009,-0.96117,0.20706,-0.58862,-0.44333,0.38672,0.15189,-0.58196,-1.0197,-0.19442,-1.6206,-0.33707,-1.1365
-0.42786,-0.63507,-0.77354,-0.3958,-1.4096,-1.3523,-0.91137,-0.11552,-1.1571,-1.0391,-0.019923,-1.4196,-0.80642,-1.1875,-0.98357,-1.8107,-0.0064796,-0.87072,-0.66629,0.70717,-1.7935,-1.1767,-0.63131,-0.4345,0.13144,-0.58203,0.2105,0.65532,0.12582,-0.71678,-1.2002,-1.0942,-0.74207,-0.44019,-1.4517,-0.5614,0.64427,-1.0997,0.3598,-1.4808,-0.77335,-1.4521,-0.16337,-0.36268,-1.0534,-1.1092,-1.1271,0.35036,-0.30344,0.36377,-0.66966,0.77591,-0.49914,-0.41996,-0.40174,-0.47189,-0.80259,0.16237,-0.35922,0.51637,-0.3905,-0.50395,0.18886,-1.5176,-0.21975,-1.4017,-0.59308,-0.16208,-0.31631,-0.54866,-1.475,-1.2369,-0.0032177,-0.33852,-1.4991,-0.41541,0.27293,-0.24227,-1.6542,-1.0283,0.76669,0.31683,0.86578,0.54219,-0.55619,-0.38164,0.13712,-1.435,-0.62663,-0.039333,-0.21391,-1.657,-0.20367,-0.69079,0.13557,-0.2296,0.53125,-0.90073,-0.73776,0.65771,-1.4592,-1.3337,0.77874,-0.96502,-0.36777,-1.6589,-0.75021,0.12627,-1.2095,0.44734,-1.4609,0.33172,0.53889,-0.4766,-0.82508,-0.90888,-1.0967,-0.71778,-1.0588,-0.86507,-1.4971,-1.1506,-1.3428,-1.2577,-0.091866,-1.6001,0.67081,0.68481,-0.31571,-0.061148,-0.15715,-0.61134,-1.1979,-0.40658,-0.6277,-0.27652,-0.35736,-0.36354,-0.10545,0.0072453,-0.45253,-1.2664,-0.026499,-1.2975,0.271,0.050561,0.28136,-0.75185,-0.79515,-1.137,-0.34876,-0.95036,-0.93201,-1.6582,-0.45422,-1.5268,-1.132,-1.3236,-1.4653,-0.029399,-0.24517,-0.34657,-0.51196,0.50942,0.93799,-0.11231,-0.29386,-0.37966,-0.69351,-0.54281,-0.26896,-0.37092,-0.74782,-0.66073,0.1547,-0.034337,0.82117,-0.30963,-1.1201,0.36401,0.54773,-1.9844,-0.085772,-0.47729,-0.80125,0.66557,-1.7036,0.040555,-0.37699,-0.56487,-1.556,0.3499,-0.43732,-0.7498,0.038254,-0.78467,0.0022197,-0.74099,0.38408,-1.163,-1.1652,-0.46428,-1.7234,-0.46355,0.23381,-0.56569,-0.49756,-0.42151,-0.0016425,-0.19537,-0.94372,-0.10625,-1.3008,-0.55564,-1.3388,-0.9476,-1.4445,-1.1913,-0.65541,-1.1083,-0.52099,-0.93862,-0.73584,-0.61598,-1.1746,-1.2074,-1.1657,-0.60638,-0.80018,-0.34929,-0.96439,-0.53315,0.51258,-1.358,-0.79207,-0.46602,-0.62748,0.3153,0.18793,-1.1098,-0.55021,-0.067123,0.12013,0.27633,-0.79418,-0.35617,0.28509,0.31089,-0.33054,-1.1947,0.12342,-0.27603,0.77368,0.20179,-0.90419,-0.18053
-0.46832,0.52343,-0.10466,-1.1653,-0.93961,-0.12101,-0.92988,-0.45907,-1.3482,-0.91027,0.37734,-1.8093,-0.049963,-0.21828,0.11865,-1.2008,-1.5955,-1.943,-0.6696,-1.3102,-0.64129,-0.71142,-0.016166,-0.4078,-0.39545,-0.87822,0.72787,-0.44791,-0.24447,-0.10596,-0.61149,-0.32728,-1.0563,-0.99634,-0.7116,0.37131,-0.9934,0.92229,-0.14677,0.29933,-0.51653,-0.332,-0.60496,-0.24536,0.42181,0.58326,-0.11329,0.2826,0.50836,-0.54203,0.50795,-0.04715,-0.31407,-0.52096,-0.55085,-0.084854,-0.44962,-0.88342,-0.21175,-1.1849,-0.48372,-0.60223,-0.49411,0.25286,-0.1951,-0.21674,-0.098505,0.21284,0.77856,-0.87023,-1.682,-0.31543,-1.5806,0.58837,-0.55814,-0.4147,-0.66416,-0.9228,-0.26142,-0.781,0.3647,-0.93991,0.057359,-1.7345,-1.0489,-1.7032,0.058296,-0.69854,-0.96689,-0.46418,0.32451,-1.0677,-0.91379,0.35645,0.016943,-0.97982,0.3,-0.75086,-0.72268,-1.1193,-1.3038,-0.082493,-1.28,0.28981,0.48616,-1.0539,-1.6244,-1.7408,-0.13858,-1.3513,-0.12684,-1.0499,-0.27232,0.07625,-0.68055,-0.85225,-0.83451,-0.97281,-1.2906,-1.4092,-0.9685,-0.44131,0.31718,0.54794,-1.4352,-0.40018,-0.086684,0.094241,0.3269,-0.068969,-0.34428,-1.634,0.55083,0.5217,-0.5496,-0.53277,-0.65448,-0.60853,-0.91364,-0.19263,-0.79079,-1.0713,0.54326,-1.3319,0.11545,-0.76249,-0.86572,-1.4354,-1.255,-1.7483,-1.9342,-0.23488,0.39721,-1.2544,-0.080364,-1.1736,-0.34589,0.056618,-1.3784,-0.92874,0.71492,-0.33269,-0.59274,0.13184,0.6992,-0.071632,-1.1697,-0.40365,0.50332,0.33181,0.28621,0.89163,-0.87447,-0.025864,0.31053,-0.3169,-0.84791,-0.58189,-0.28173,-1.436,-1.4353,-0.79639,0.34243,-1.0585,-0.86071,-0.057219,-0.42806,-0.74793,-0.24124,-0.98517,-1.1159,0.39574,-0.11128,-0.86386,0.15712,-0.68672,-0.81978,-0.25504,0.15037,-1.2298,-1.4271,0.042859,-0.16382,0.039325,0.17015,-1.0874,-0.97676,-1.2511,0.49314,-1.5251,-0.73447,-0.84518,0.22538,-0.52486,-0.48417,-0.58103,-0.20773,0.080832,-0.1997,0.55839,-0.35675,-0.88579,-1.7001,-0.2624,0.1091,-0.84895,-1.031,-1.21,-1.5464,-0.97799,0.10235,-0.37822,-0.6149,-0.067286,-1.1526,-0.10743,-0.22709,-1.6197,-0.23736,0.15241,-0.53708,-1.0445,-1.0809,-0.42191,-1.1878,-0.81904,-0.13959,-0.059553,-0.39947,-0.17536,-0.37073,-1.1089,0.064325,0.55605,-0.4727,-1.2754
-1.4431,-1.1978,-0.87729,-0.85125,-0.87586,0.71242,0.1838,-0.62969,-0.57118,-0.11095,-1.3358,0.66325,0.54311,-0.83447,-0.40888,-1.5174,-1.5089,-1.5257,-0.45312,-0.030743,-0.95735,-1.0667,0.013912,-0.91884,-1.2193,-1.7545,-1.2116,0.53375,0.11679,-0.49823,-0.20266,-1.6001,-0.76445,-1.2786,0.72053,-0.77603,-1.4212,0.15115,-1.7541,-1.282,0.55236,-0.17441,-1.3215,-0.7969,-1.257,-1.3217,-1.441,-0.040731,-0.998,-1.2271,-1.5096,-0.92393,-0.77247,-1.4846,0.07403,0.2189,-0.39184,-1.7513,-1.2962,0.74086,-0.4312,-1.2368,-0.22203,-1.172,-0.66525,-0.67765,-0.46129,-1.5016,-0.74509,-0.93752,-0.26078,-0.85115,-0.44984,0.62367,-0.87375,0.10282,0.38711,-0.26854,0.095325,0.12898,-0.2265,-1.6466,0.57301,-1.6719,0.032683,0.64901,-0.054241,-1.1863,-1.067,-1.0401,-0.39991,-0.12424,-1.7941,-1.0183,-0.021346,-0.65028,-0.93544,-0.97155,0.2103,-1.427,0.070718,-1.6215,-1.0604,-0.81321,-0.65421,-0.58983,-0.3043,-1.8458,-0.078505,0.20238,-0.96254,-0.59615,0.39034,-1.148,-1.4346,-0.13647,-1.2384,-1.2442,0.0071462,0.13688,-0.26532,-0.50539,0.16052,-0.76211,0.47697,0.13884,-0.74395,0.1833,-1.0362,-0.79917,0.27914,-1.178,-1.2701,0.16948,-1.1993,-0.25114,-1.4363,-1.0807,-0.062047,-0.3181,-0.21504,-0.26332,0.24679,-1.0215,-1.5513,-1.0715,-1.5539,0.63727,-1.6314,-0.029794,-0.89554,-0.11003,0.13958,-1.5688,-0.098604,0.074831,-1.223,-1.3866,-0.6686,-1.4842,-0.98758,-1.5178,0.07735,0.90618,-1.3421,-0.4331,0.2451,0.38309,-0.1853,-0.99432,0.75734,-0.35589,-1.1626,0.15101,-0.61557,-0.56726,-0.23903,-0.98055,-1.1994,-0.99491,-0.21227,-0.45967,-0.42058,-0.0087917,0.54483,0.070349,0.0039106,-1.5358,-0.25631,-0.50568,-0.438,-0.98429,-0.84493,-1.375,-0.23471,0.24165,0.034253,-1.1109,-0.84015,0.028929,-1.3245,-0.061698,0.063436,-0.35366,-0.46981,-0.45589,-1.4881,-0.71544,-0.64113,-0.64997,0.079444,-1.7339,0.13589,-0.54753,0.20066,-0.48466,-0.62204,-1.5057,-0.8719,-0.73606,-0.82041,-0.35669,0.053422,-1.6819,0.23052,-0.16504,0.19146,-1.595,0.099139,0.31545,-1.7088,-0.053607,-0.62677,-1.4675,-0.68268,-0.44851,-0.90348,0.40471,-1.7415,-1.0405,-0.28714,-0.097846,-0.37745,-0.47343,-0.92582,-0.68059,-1.0852,-1.7004,-0.19047,-0.75648,-0.38315,-0.8167,-0.42334,-0.2914,-0.015905,-1.6074
-0.21675,-0.98457,-1.1298,0.26667,0.43953,-0.79011,-0.58168,-1.0261,-0.69913,-0.80229,0.47486,0.70686,-0.46699,0.76076,-0.95463,-0.097702,-0.68708,-0.26922,-1.2781,-1.3208,-1.8143,-0.84254,-1.35,0.55012,-0.01916,0.40987,-0.80871,-0.85419,-1.644,0.013686,-0.39746,-0.85154,-1.1381,-0.6556,0.17593,0.23715,-0.13392,0.068716,-0.11902,-0.44819,-0.095231,-1.1477,0.38292,0.064354,0.0042258,-0.58245,-0.50648,-0.21674,-0.38148,0.38627,0.055496,-0.40304,-1.2087,-1.2091,-1.0423,-0.068167,-0.55662,0.2572,-0.61766,-1.1398,-1.4775,-1.5045,-1.1002,-0.12115,-1.5822,-1.1683,0.057998,-0.19647,-1.2866,-0.59007,0.42265,-0.56614,-0.68617,-0.33321,-0.36924,-0.77156,0.30773,-0.13318,-1.0118,-1.2566,-0.31406,0.0052672,0.26743,-0.57529,0.044134,0.54769,-0.31248,-0.4608,-1.3127,0.12209,-0.001397,0.34269,-0.88981,-0.73393,0.27269,-1.2104,0.24035,0.079276,-0.64892,-0.38795,-0.52556,-0.54412,0.95924,-0.39669,0.63739,0.60859,-1.7341,0.36421,0.10824,-0.52649,-1.48,0.35706,0.31995,-1.0043,-0.68393,-1.2194,-0.32424,-0.97856,-1.0946,-0.86777,0.73706,0.22107,-1.1844,0.29447,-0.76014,-0.35826,-0.30004,-0.23001,0.45357,-0.73188,0.28983,-1.6682,-0.29375,-0.44133,0.59088,0.065644,0.037491,-1.3004,-1.1958,-1.1653,-0.13864,0.16711,-1.1526,-1.3841,-0.10147,0.65776,0.78156,0.088837,-0.31167,-0.1929,-0.88042,-0.94203,0.067322,-0.056649,-0.69407,-0.83102,-1.3126,0.26494,-0.92587,-1.3828,-0.48385,-1.3215,-1.3048,-0.38434,-1.3683,-0.81768,-0.4587,-0.38881,0.88365,-0.34347,0.034812,-1.1879,-0.51106,-0.47148,-0.060787,-0.75792,-0.91396,-0.05264,-0.31234,-0.82116,0.72047,-1.254,0.032836,-0.5468,-1.5629,-0.93726,-0.64153,0.081265,-0.18021,-0.059666,-1.0735,-1.0689,-0.10873,0.44041,-0.76641,-0.26826,0.080763,-0.66527,-0.057401,-0.27857,-1.2289,0.18614,0.088373,-0.77303,-1.4042,-0.37164,0.29987,-1.1501,0.25268,-1.535,-0.07346,-0.47383,-1.3492,-1.7492,-0.85324,-0.15172,0.18475,-0.59273,-0.24456,-0.72237,-0.90268,-0.96928,0.30765,-0.60438,-0.42865,-1.1343,0.49436,0.83868,-0.60529,-0.36516,-1.3013,0.1426,-1.794,-0.47152,-0.39147,-0.24741,-1.0786,-1.5932,0.50763,-0.090809,-0.10795,0.35725,-0.33497,0.42669,-0.9566,0.43522,0.2221,-0.13514,0.067896,-0.95501,-0.37551,-0.99911,-0.54178,0.59558,-0.2377,-1.3093
0.76282,-1.0142,0.56559,-1.6007,-0.66746,-1.5125,0.010186,0.31998,-0.10007,-0.18382,-1.3415,0.0041117,-1.5444,-0.12593,-0.33429,-1.1977,-1.4576,-0.12369,-0.9982,0.47582,-1.2623,-1.6589,0.011147,-0.23101,0.57733,0.52568,-0.28074,-0.0091032,-0.1455,0.052095,-0.14177,0.18907,0.2588,-1.0514,-1.0261,-0.84597,-0.15354,-0.69779,0.21691,0.55949,0.004055,-0.71925,-0.68745,-0.709,-0.43729,-0.94889,-0.70038,0.39503,-0.22714,-0.63824,-0.18867,-0.90502,-1.1193,-0.78575,-0.64822,-1.6095,-0.10629,-1.1774,-1.5161,-1.3849,-0.2769,-1.5787,-1.4825,0.47216,-0.97338,-0.056138,0.19997,0.43787,0.29642,-1.04,-1.6579,-1.1644,0.073232,-0.60578,-1.2882,-1.1289,-0.51505,0.3114,-1.562,-0.10464,0.64882,0.18482,-1.1012,0.92179,0.51255,-0.46593,-1.163,0.16395,-1.1312,-0.9398,0.65899,-1.7154,-0.31551,-0.32157,-0.22613,-0.24817,0.70997,-1.2096,-0.27494,-0.041834,0.49687,-0.76387,-0.58462,0.32713,-1.5768,-0.89691,-1.0691,0.19937,-1.0768,0.22611,-1.4393,-0.49461,-0.84936,0.27687,-0.60763,0.16492,-1.1372,-1.6756,0.26703,-1.304,-0.79565,-0.19619,0.21763,0.11402,0.13338,0.31917,-0.12571,-0.62469,-1.0807,-0.3132,0.26466,0.73508,-1.3638,-0.55369,0.59219,-0.013179,-1.2815,-0.90939,0.30864,-0.97748,-0.54872,-1.5788,0.31262,-0.25956,-0.53605,0.55458,-0.11915,0.49922,0.036547,-0.98821,-0.11014,-0.81146,-0.11923,0.21467,-0.19983,-1.5899,-0.0090027,-1.0767,0.21666,-0.39641,0.12261,0.46687,-0.24951,0.19376,-1.0028,-1.2845,-0.54622,0.48801,-1.5584,-0.29347,-0.96838,0.59148,0.11318,0.60944,-0.73356,-0.72016,-1.1434,-0.97936,-0.11556,0.16878,-1.0782,-1.2379,-1.3092,-1.3997,-1.8793,-1.8072,-0.85954,-0.38892,0.48096,0.59219,-0.66783,-1.1111,0.69423,0.15084,-1.696,-0.11547,0.78451,-1.0178,0.21975,0.32908,-0.42262,0.50393,-1.5644,-1.4128,-1.3478,-0.71814,0.92524,-0.26113,0.10577,-0.096356,-1.4797,0.37068,-1.3382,-0.38631,-1.0044,-0.22021,-1.5513,-1.1914,-0.92222,-1.4121,-0.61882,-0.99745,-1.1906,0.11452,0.056777,0.75672,0.39462,-1.5426,-1.048,-0.16246,-1.8367,-0.55719,-1.3546,-0.83475,-0.72919,-0.31013,-0.50809,0.66313,0.4738,0.65568,0.26307,0.5688,-0.64214,0.16428,-1.0094,-0.29116,-0.016835,0.47843,-1.0687,-0.60148,-0.68133,-1.163,-0.74714,-0.55323,0.46446,-1.3669
-0.63364,-0.35322,0.1031,-1.3984,0.59977,0.29545,-1.2388,-0.67922,-0.96368,-0.67345,-0.080302,-0.22149,-0.94003,0.62836,-1.442,0.35404,0.21407,0.39566,0.65802,0.23128,-1.1517,-0.20454,0.19338,-0.20216,-0.82416,-0.0023193,0.21408,0.093564,-0.8568,-1.0701,0.19873,-0.43797,-0.36782,-0.49173,-1.5603,-1.5349,-0.51989,-0.82937,0.30344,-1.3584,-1.4392,-0.39365,-0.23462,-1.2104,0.38887,-1.3175,-1.0337,-0.55952,-0.19611,-1.1551,0.76738,-0.86804,0.33851,-0.11301,0.0258,0.11341,-0.88528,0.29085,-0.64093,0.027317,-1.5333,-1.3978,-0.90248,-1.5324,-1.7136,-1.0795,0.39281,0.032631,-0.82266,0.81327,-0.031361,-0.19158,0.15035,-0.31698,-0.92283,-0.91745,-1.523,-1.2447,-0.21733,-1.5561,-1.2858,0.83173,-1.5849,-0.048566,-0.16039,-0.28728,-1.3624,-0.36264,-0.14582,-0.31826,-0.35593,-0.48792,-1.7395,0.19792,-1.6035,-0.38352,-0.94772,-0.073562,-1.0504,-0.8566,0.36312,-0.47808,-0.70203,-0.97188,0.38023,-1.3811,0.022784,0.13475,-0.42898,0.32602,-1.1906,-0.51067,-1.3933,-1.1279,0.73179,0.60687,0.037467,-0.5093,-0.91617,-0.32926,-1.1521,0.71813,0.07254,-1.0716,-0.15763,-0.53715,0.78483,-1.4502,-1.1672,-0.81328,-0.073818,-0.12584,0.29927,-1.1221,-0.97357,-1.1849,-0.54249,-0.48139,-0.697,-0.19467,-1.1992,-1.6797,0.32233,0.083213,-0.99288,0.6334,-0.59078,-0.50454,-1.0237,-0.54013,-0.496,-0.048148,-0.95922,0.38008,0.14277,0.64918,-0.62364,-0.30395,0.043011,-1.192,-1.53,-0.7181,-0.10102,-0.37533,-1.4184,-0.16271,-0.01316,-0.497,-1.1575,-0.32653,-0.85366,-0.96718,0.69872,-0.93166,-1.2991,-0.35714,-1.5911,-0.1797,0.4351,-1.4107,-0.15882,-1.0316,0.01309,-1.0178,0.10499,-1.6513,-0.81405,-1.129,0.17819,-1.3884,-1.3127,0.0071851,0.11977,0.18062,-0.98077,0.60539,0.52874,-1.003,0.31307,-0.8068,0.076711,-0.9418,-0.48686,-0.85086,-1.1058,-1.0493,-0.21545,-0.73378,-0.81677,-0.77045,-0.87382,-0.49468,-0.82761,-0.067487,0.4238,-0.22217,-1.014,-0.97676,0.027934,0.26611,0.02078,-0.78774,-1.0021,-1.0859,-1.4244,0.27281,-0.35654,0.42403,-1.3757,-0.65639,-0.76783,-0.79285,-0.7751,0.36969,-0.61262,-1.4094,-1.1676,-1.1018,-0.32516,-1.1667,-0.44872,-0.48414,-0.53024,-0.52535,-0.50022,0.012978,-1.2488,0.07054,-1.1027,-1.5191,-0.54151,-0.75065,-1.4181,-0.4065,-1.2948,-0.13698
0.7141,-1.2187,0.46351,0.31311,-0.74261,-0.90159,-1.6096,0.048661,-0.59541,-0.41652,0.55559,-0.40706,-0.41633,-0.22275,-1.6077,0.44931,-1.2844,-1.1638,0.35255,0.047199,-0.50543,-0.37463,-0.72108,-0.11698,0.40822,-0.38104,-0.34803,-0.97061,-0.80457,-1.6542,-0.2223,-0.6363,-0.50109,-1.0316,-0.97031,-0.30329,-1.3842,0.65938,0.65659,-0.71249,-0.54413,0.070407,-0.8254,-0.85163,-1.4127,-0.25436,-0.40263,-1.2599,-0.61665,-0.41796,0.28158,0.36828,-1.2182,-0.98752,0.8071,-0.37505,-0.61123,-0.68095,-1.0762,-0.40631,-0.20919,0.65952,0.021894,-0.34435,-0.4721,-1.1183,0.46988,0.27436,0.045655,-0.07541,0.42545,-0.070204,-0.704,-0.89894,-0.084278,0.021897,-0.91585,-1.0951,0.70911,-0.37149,-0.55485,-1.1459,0.704,0.2077,-1.3076,-0.12253,-0.71434,-1.6573,-0.27255,0.71107,-0.48623,-1.3497,0.1162,0.30732,-1.3454,-0.10481,0.83028,-1.3059,-0.33518,-1.261,-1.0496,-0.36711,0.12438,-0.85543,-0.6881,-0.55597,-1.2851,-0.4396,-0.72337,0.33845,-0.23181,0.24343,-0.076952,-0.79076,0.43819,-1.3281,-1.4219,-0.56119,-1.3403,-1.1433,0.37803,-0.015852,-0.13226,-0.0080445,-0.2875,-0.055033,-0.18383,0.87229,-0.56486,-0.32196,0.53572,-1.8607,0.21202,-0.17219,0.18312,-1.0198,-0.11629,0.1388,0.12457,-0.98037,-0.49386,-0.35221,-1.5286,-0.093758,-0.50197,-0.022076,-0.93661,-1.3436,-0.36299,-1.6939,-0.41845,0.43179,-1.3739,-0.89732,0.089614,-0.53732,0.689,-1.3071,-0.07967,-0.62883,0.13737,-0.35188,0.21801,-0.23315,-0.79276,-0.50292,-0.34835,-0.15874,-1.5642,-0.67854,0.082483,-0.20793,-0.59177,-1.255,-1.0061,-0.0043165,-1.8742,-1.612,-0.5402,-0.80956,-1.0059,-0.13678,0.11649,-0.73068,-1.1625,-0.00060893,-0.087624,-0.76225,-0.41967,-1.2095,-0.75816,-0.14238,-0.53388,-1.0016,0.26125,-0.04212,0.083094,-1.3405,-0.62103,-0.11405,-0.32397,-0.3613,-1.4312,-0.81442,0.48685,-1.0449,0.3973,-1.16,-0.20406,-0.35117,0.067744,0.54971,0.64343,-0.64423,0.15004,-1.475,0.64036,0.75018,0.30506,-1.6669,0.24254,-0.9783,-0.55132,-0.01951,-0.48672,0.40489,-0.37656,-1.04,-1.9185,-0.47091,0.16884,-0.029161,-1.5852,0.06922,-0.72829,-0.88826,-0.010536,-0.81342,0.56316,0.12819,-0.83869,-0.96609,-0.27395,0.86613,0.54236,-0.66845,-0.10287,-0.79461,-1.2484,0.073676,-0.566,-0.30882,0.010974,-0.69966,-0.6562,-0.97908
-1.3734,-0.60605,-0.31287,0.45646,-1.2635,-0.21616,-0.30819,-0.16401,-0.36768,-0.16336,-0.24057,-0.82981,-1.4722,-0.11404,-1.3615,-0.56156,0.94289,-0.6513,-0.020446,-1.314,0.14126,0.26251,0.1164,-1.1819,-0.028859,0.028597,-1.7742,-0.58583,-0.61987,-1.265,0.038838,-0.15209,-1.0649,-0.031085,-1.2535,-0.75784,0.095414,-0.10242,-0.38051,-1.5324,-1.0175,-0.9861,-1.0399,-0.80208,0.0027399,0.55263,-1.2212,-0.017751,-0.49015,0.06245,0.36477,-1.6168,-1.4581,-0.44078,-0.79494,-0.68142,-1.071,-0.52335,-0.59578,-0.76965,-0.50315,-1.4083,0.083529,0.36483,-0.8227,-1.6842,-0.48423,-1.1057,-0.31747,0.79292,-0.17669,0.019344,0.89623,0.44647,0.0027698,0.41261,-0.01288,-1.4128,-0.94702,-1.2667,-0.47001,0.17298,-0.47285,-1.5703,-0.22092,0.47004,-0.65708,0.097202,0.51344,-0.43216,0.28555,-0.2529,0.41705,0.51635,-0.87756,-0.0090573,0.67955,0.084191,-0.38335,-0.8584,0.16562,0.20848,-0.8931,0.83498,-1.5764,-0.16697,-0.86014,-1.0193,-1.7162,-1.3831,-1.0082,-0.12352,0.0061053,-1.2673,0.37858,-1.846,-1.5161,-1.4403,-1.5319,-1.77,-0.083255,-0.69067,-1.3482,0.36196,-0.19443,-0.93072,0.24476,0.12109,-0.53111,0.42459,-1.4911,0.77863,-0.41003,-0.95269,-0.61343,-0.39274,-0.16556,-0.29652,0.23317,0.032753,-0.62332,-0.22308,-0.32334,0.47124,-1.8989,-0.29102,-0.88553,-0.25646,0.21708,-0.79603,0.045634,-0.13265,-1.4782,0.37184,-0.086378,-0.51207,-1.2374,-1.8253,0.2682,-0.8715,-0.7196,-0.4694,-0.62999,-0.058887,0.68855,-0.96433,-1.5143,-0.8248,-0.75882,-1.2204,-1.6594,-0.3341,-1.3584,-0.41884,-1.8409,-1.1063,-0.1987,-0.21056,-0.63638,-0.99835,-1.4818,0.31136,0.28402,-1.0005,-0.32536,-1.5519,0.15435,-0.41417,-0.99382,-0.73386,-0.84379,-0.73335,-0.85635,-0.98433,-0.93679,-0.36191,-0.15173,-0.99325,-0.60802,-0.94285,-0.25304,-0.79463,-0.54564,0.89925,-0.11254,0.03283,-1.3255,-0.55439,0.34316,-0.32128,0.60712,0.17605,0.21814,-0.4209,0.18157,-0.032435,-0.80621,-0.98939,-0.34486,-0.53947,0.25635,0.38587,-0.46663,0.35934,-1.2014,-1.35,-1.245,-0.84438,0.13729,-0.50227,0.15845,-1.7761,0.45144,-0.57975,0.15846,-0.9456,0.52497,-0.36497,-1.0313,-1.4548,-0.99699,-0.034339,-1.0508,-0.25296,-0.48763,-0.67815,-1.3813,-1.1486,0.33461,-0.87802,0.24389,0.94398,0.28123,0.26977,-1.1347,-1.1837
-0.89753,-0.41604,-1.183,0.33999,-0.75151,-1.148,-0.80568,-0.28565,0.4466,-0.32907,-0.77262,-0.40942,-0.5261,0.12352,-1.2401,-0.10168,-0.32885,0.093568,-0.9523,-0.21898,-0.081646,-0.20106,-0.3713,0.55598,0.46602,-1.0557,0.50445,0.10116,-0.22304,-1.2325,-0.26999,-0.023344,0.16667,0.56565,-0.20656,-1.2962,-0.7544,0.085911,-1.2704,-1.3428,0.028579,-1.0265,-0.40619,-1.0426,0.67759,-1.5265,-1.2346,0.69332,0.02425,0.65977,-0.61461,-1.021,-1.0881,0.42323,-0.77499,-0.6974,0.35715,0.30017,-0.22834,-0.1368,0.13167,0.65848,0.20554,0.51023,-0.25287,-0.75269,-0.10918,-0.37025,-0.39025,-1.0776,-0.19987,-0.19726,-1.299,-0.6347,-1.226,-0.27601,-0.68975,0.22548,0.7297,-0.44383,-1.0017,-0.7275,-0.026333,-0.48127,-1.7688,-1.1284,-0.48479,-1.4014,-1.1826,-0.84341,-0.060885,0.34638,-0.070348,-0.73538,0.25339,-0.53459,-1.1457,0.16467,-0.53425,-0.83088,-0.13562,-1.6755,-0.50783,0.090201,-0.045404,0.23526,0.23515,-0.49241,0.8988,0.57791,-0.79307,0.21418,0.58346,-0.9945,-1.5849,0.50061,-0.43524,0.29973,-0.051894,-1.0545,-0.011698,-1.3671,0.22236,0.44711,-1.2939,-0.54812,0.67352,0.043859,0.061071,-0.2216,-0.5753,-1.2194,0.72748,0.47096,0.2183,-0.33329,-0.99186,-0.36023,-0.33126,-0.1646,-0.84388,-0.72559,0.38974,-1.5302,-1.0299,-0.9983,-0.90172,0.036102,-1.303,-0.34069,0.66567,-1.8709,0.35958,-0.68014,-1.411,-1.0046,-0.49774,-0.92348,0.61802,-0.17283,-0.037175,0.03143,-1.3384,-0.33116,0.84073,-0.025164,-0.35307,-0.16985,0.15003,-0.47919,-0.59019,-0.098002,-1.7082,-0.84415,-0.88443,-1.382,-1.3643,-1.7534,0.13895,0.30606,-1.2861,-0.24494,-1.3839,-0.56783,-0.47027,-0.37413,-1.7937,-0.65289,0.23928,-1.1712,-1.476,-1.27,-0.88912,-0.15134,-0.31822,-0.40766,-1.6919,-0.11457,0.047232,-0.5067,0.090788,-0.62061,-0.33852,-0.19821,-0.44272,-0.12108,-0.13563,-1.2042,-1.2831,0.00054812,0.36681,0.54524,0.12009,0.011209,0.21468,-1.407,-1.3627,0.67331,0.40078,-0.15328,0.54594,-1.8048,0.51872,0.18931,-0.083759,-0.093957,-1.0501,0.92725,-0.61521,0.015114,-0.2235,-1.3401,0.081345,-0.048775,-0.01845,-0.7533,-0.26997,-0.7375,-0.31359,-0.61826,-1.1595,-0.18506,-1.5418,-1.3234,-0.87551,-1.3924,-1.3385,-0.44861,-1.2183,-1.0368,-1.0345,-0.40676,-1.5151,-0.15456,-1.2408,0.86549
-0.28318,0.70542,-1.4852,-0.71726,-0.88942,-1.1279,-1.5599,-0.69254,-0.92611,-0.32058,-0.36057,-0.82544,0.17448,-0.32638,-0.10947,-0.60554,0.66274,-0.83211,0.1233,-0.62327,-0.19714,-1.3011,-0.27919,-0.27452,0.29877,-0.15881,-0.65774,-0.080694,-1.9633,-0.96477,-0.51859,-1.0127,0.57116,-0.073253,-1.8055,0.22279,0.17044,-0.23446,-0.96232,-1.0478,0.44517,0.2985,0.21951,-0.46404,0.2606,-0.91137,0.35419,-1.5312,0.13059,-0.31367,-0.19424,0.68608,-1.481,0.16896,-0.85422,-1.3514,-0.97253,-1.3236,-0.099963,-0.96067,0.70971,0.19795,-1.8017,-0.17375,0.38344,-0.51038,0.17556,-0.96684,0.0066336,0.34689,-0.12748,-0.59481,0.042687,-0.14328,-0.43215,-0.29807,-0.83711,-0.050607,-0.71926,-1.3034,-0.66899,-0.15345,0.16988,-1.0464,0.16854,-0.32239,-0.13377,-0.89819,-0.34897,0.67347,-0.91948,0.35759,-0.033977,-0.92226,-0.65775,-0.22209,-0.87531,-0.13759,-1.427,-0.12443,-1.063,-0.86618,0.082566,-0.43969,-0.31087,-0.74343,-0.6895,-0.12738,-0.14381,-0.52284,-0.36434,0.016984,0.72824,-0.42509,-0.89427,-0.37932,-0.94929,-0.092485,0.32696,-0.030957,-1.1529,-0.59373,-0.41671,0.30471,0.074544,-1.3012,-1.1735,0.36454,-1.4552,-1.1958,-0.092616,-1.7054,-1.1991,-1.7659,-0.032357,0.62279,0.27498,-1.1075,-1.3603,-0.078617,-0.2799,0.43384,-0.81154,-0.24192,-1.3103,-1.056,0.0090706,0.45028,-1.0369,-1.2068,-0.5082,-0.88123,0.42467,-1.5217,0.20869,-0.0043535,-0.77504,-1.7797,-0.83659,-0.48131,-0.85294,-0.49232,0.38229,-0.38391,-0.7898,0.28558,-0.81673,-0.67247,-1.0915,0.40904,-1.3749,0.50273,-0.44243,0.39495,-1.0275,-1.214,0.38621,-0.68242,-0.053883,0.13844,-0.25246,-0.28202,-0.063116,-0.49158,-0.065883,-0.17139,-1.0677,-0.74656,-1.1604,-1.6726,-1.8931,-0.12779,0.17323,-1.3635,-1.1891,-1.39,0.33105,-1.0025,-0.83233,0.94598,-0.16733,-0.94446,0.49381,-1.0669,-1.6126,0.77471,-1.2444,0.63124,-1.6251,-1.7306,-0.39972,-0.94908,-1.217,-1.0341,-1.0893,0.67454,-0.33124,-0.14341,-0.33882,0.011239,-0.5411,-0.013975,-0.19183,-1.3894,-0.87022,0.12337,-0.6667,0.40675,-0.36142,-0.68012,0.25782,-0.05377,0.014764,-0.3596,-1.7879,-0.73639,-0.24239,-0.97123,-0.40939,-0.019159,-1.1854,-1.5287,0.007981,-1.5919,-1.1849,-1.5951,-0.079108,-0.88703,0.6456,-0.23109,-1.7132,-0.4825,-1.1401,-0.19961,-0.78564,-0.63721
0.33822,-0.94204,0.15126,-0.48801,-0.74152,0.096461,-0.20562,-0.18029,-0.93997,0.31536,-0.86103,0.0027607,-1.0757,-0.18528,0.54443,-1.5226,-0.38928,0.084688,-0.6415,0.45076,0.69113,0.68772,-0.8933,-1.3771,-0.99022,-0.8936,-1.5229,0.16162,-0.050242,-0.20752,-0.69058,0.33413,-0.69232,-0.49199,-1.2669,-1.2406,-1.0246,-0.70369,-0.95927,-0.90139,0.42739,-1.3276,0.073876,-0.010063,-0.70154,-0.5663,0.33561,-0.6332,0.52018,-1.3708,-0.22393,-0.47384,-1.5295,-0.71562,-0.88309,-1.6179,-0.95403,-0.18917,-0.57501,0.33492,-0.20908,-1.4131,-0.48886,0.14398,0.59624,-0.56128,0.95757,0.084189,-0.46502,-0.22365,-1.4901,0.22411,0.34652,-1.2196,0.55401,0.46248,-0.059958,-1.0294,-0.053129,0.49131,0.16075,0.47851,-0.043875,-1.2836,-0.052111,-0.2466,0.09342,-0.60254,-0.52761,-0.094411,-1.6519,-0.93376,-0.16215,0.16332,0.062802,-1.5217,0.032731,-1.4981,-1.1472,-0.13098,-0.70338,-0.84531,0.71869,-0.77704,-0.49107,-1.1388,0.070651,-0.37871,0.71087,-0.46331,-0.94227,-0.44314,-0.64221,-1.1941,-0.38994,-1.4373,-0.74264,-1.0595,-0.69955,0.28924,-0.18185,0.3674,-0.69061,-0.53995,0.54108,0.24255,0.33225,0.77861,-1.2491,-0.67836,-0.89617,-0.12808,-1.7536,0.14157,-0.23039,-0.94948,-1.0707,-0.63639,-1.0411,-1.5433,-0.93767,-0.88023,0.48355,-0.1593,-1.5834,-0.79261,-1.0643,-1.956,-0.988,-1.6262,-0.86614,-1.295,-0.70062,-0.46094,-1.584,-1.4723,-1.6429,-0.38594,-0.96318,0.027662,0.21222,0.20861,-0.68819,-1.7157,-0.90977,-1.7023,-1.0235,0.22703,-1.0779,-0.93834,0.84522,0.025206,0.2418,-0.83466,-1.6382,-1.4607,-0.79251,-1.1071,-0.16169,-0.71842,-0.16545,-1.1178,-0.7791,-0.8098,-0.49904,-0.72726,-1.5705,-0.29526,-0.38695,-0.59878,-1.596,-0.097109,-1.777,0.035164,-1.4264,-0.27377,0.77609,0.30269,0.44232,0.070696,0.026015,0.23689,0.35655,0.87777,0.6368,-0.3022,-1.1595,0.11236,-1.0421,-1.4407,-0.8729,-0.68972,-1.2629,-0.3555,-1.1119,-1.1714,0.13769,-1.195,-1.045,-0.44576,0.77079,-0.3167,-1.4776,-0.86987,-0.55694,-1.378,-0.078399,-0.64505,-0.60868,0.24274,-1.0571,-1.6695,0.71852,-0.073911,-0.94743,-0.83571,0.65887,0.65667,-0.051706,-0.75299,0.30318,-1.2101,-0.69334,-1.1009,-0.51076,-1.5233,-1.6327,-0.97077,-0.66149,0.4227,-0.91402,-1.116,-1.2672,0.61759,-0.34102,-0.38391
-0.46794,-0.77732,0.19978,-0.080804,-0.62158,-1.3559,-0.14579,-0.63663,-1.3046,-0.24071,-1.2189,-0.59486,-0.20963,-1.7396,-0.11193,-0.28381,0.33337,-0.58919,-0.67713,0.25691,-0.017241,-0.26193,-0.63102,-0.40956,-1.1198,-0.92771,-0.054629,-0.38592,-1.2971,-0.26082,-0.21878,-0.41868,-0.25766,0.58532,0.025568,0.079104,-1.6985,-0.34774,-1.5393,-0.15274,-0.99432,0.58305,-0.90915,-1.5628,-0.89486,-0.89447,-0.23619,-1.3285,-1.1128,0.17937,0.11408,-0.25015,-0.97341,-0.74254,-0.69311,-1.3021,-0.19323,0.029982,-0.54933,-0.93965,-0.6544,-0.54455,-1.4575,-0.56036,0.44407,-0.11701,-1.3783,-1.3611,-1.2818,0.54551,-0.44474,-0.77462,-1.8738,-0.47263,-1.0135,0.83688,-1.8596,0.80839,-0.53414,-0.55885,-0.13673,-0.94662,-0.66052,-1.3511,-1.0636,-0.99929,-0.72848,-0.074297,0.6032,-0.27951,0.18155,-0.41281,-0.12092,0.44195,-0.24166,0.064002,0.16133,0.3616,-1.1781,-0.23581,-0.35044,-1.1782,-0.37522,-0.92632,-1.4412,-1.1301,0.52457,-1.1877,-0.14505,-1.4285,-0.72836,-0.29274,0.033279,0.56597,-1.3622,-0.099465,-1.2465,-0.41834,-0.57723,-0.74895,0.11582,-0.72651,-0.83414,0.47292,-0.72627,-1.7554,-0.87057,-0.015194,-0.066723,0.58812,0.27515,-1.6793,-0.05384,-0.052104,-0.47914,-0.803,-1.8955,-1.4694,-0.708,-0.56099,0.60667,0.21628,0.40451,0.043208,-1.407,-1.8556,-0.83046,0.40499,-0.90078,-0.27919,-0.6992,-0.37757,-1.1328,0.41035,0.48203,-0.30571,-1.3961,-0.7204,-1.2318,0.065312,-0.74338,0.094039,-1.2164,-0.0093373,-0.33593,-0.4646,0.11204,-0.20221,-1.0001,-0.26468,-0.47966,-0.064451,-0.5048,-0.071817,-1.5024,-0.98188,-1.311,0.66591,-0.36725,-0.63031,-0.14576,-0.72704,-0.38597,0.33632,0.36506,-1.0153,-0.23396,-0.0078241,0.33389,-1.02,0.1649,-1.908,-0.79863,-0.85278,0.25764,-0.27495,-0.62312,-0.18659,0.60583,0.044981,-0.080853,-1.3032,-0.0011859,0.55023,-0.11752,-1.1502,-0.47205,-0.47913,-0.60781,-0.96997,-1.1127,-0.59651,-0.42823,0.63782,-0.00017299,-0.1243,-1.634,-0.42587,-0.66784,-0.081703,-0.93387,-1.3673,-0.75756,0.86927,-1.3073,-0.70789,-1.3596,-0.57461,-1.4979,0.19948,-1.4281,-0.9032,-0.73869,0.38034,-0.95996,-1.2327,-0.63532,0.16172,-0.02479,-1.1469,-0.096746,-0.40062,0.56773,-0.7837,0.36404,-1.1322,-0.82729,-1.1515,0.09337,-0.51287,0.023932,0.04015,-1.0886,-0.14136,0.71456,-1.1668
-0.79326,-0.55061,-0.99628,-1.644,-0.35995,-1.5552,-0.18088,0.55364,-1.0558,-1.4547,-1.1513,-0.98776,-1.4823,-0.88128,-0.33072,-0.68406,-0.89675,-1.0886,0.33269,-1.2272,-1.6126,-0.61019,-1.3252,-0.93116,-1.1701,0.94169,-0.42891,-1.5199,-1.2465,-0.88171,-0.7187,-1.558,-1.6519,-0.22573,-0.95955,-1.6348,0.57125,-0.4105,-0.81657,-1.0335,-1.2669,-0.36579,-0.67545,-0.93079,-0.090562,0.096663,-0.98437,-1.1707,-0.31635,0.68333,0.14121,-0.050824,-0.026195,-0.18328,-1.0404,-0.019248,-0.92446,-0.45631,-0.23531,-0.0053559,0.14031,-0.76979,0.45793,-0.25164,-1.5594,-0.19317,-0.53505,-0.50245,-0.70902,-0.71094,-1.1894,-0.08929,0.32784,-0.99015,-0.50284,0.80492,-0.74313,-0.80274,-0.0050916,-0.73577,0.92939,-0.28174,-1.4828,-1.3904,-1.3459,0.82097,-0.99368,-1.639,-0.90329,-0.76205,-1.1465,0.24111,-1.0306,-0.48472,-1.5743,-1.0234,-0.45431,0.27218,-0.29869,-0.11887,-1.8017,-0.23153,0.46929,-0.81545,-0.70467,0.057687,-0.72202,-0.31629,-1.0996,0.15829,0.60009,-1.0325,-0.8414,-0.37634,0.24849,0.91387,-0.85166,-0.72347,-0.61893,0.86694,0.76511,-1.3706,0.22744,-0.31647,-1.6051,-0.20103,0.55635,-0.15974,-0.60772,0.59421,0.50359,0.4149,0.18449,-0.83265,0.26191,-0.833,-0.44081,-0.34592,0.18279,-0.68892,-1.3225,0.080711,0.069182,0.049057,0.13223,0.59275,0.42843,-1.4675,-1.2054,-0.62909,-0.7395,-1.4211,-1.3094,-1.8488,-0.43678,-0.55648,-0.80948,-1.0163,-1.0193,-0.25073,0.079032,-1.2089,-0.73181,-0.97611,-0.96276,-1.3167,-0.68497,-0.2293,-0.95819,-1.2383,-1.1857,0.60411,-0.54375,-0.21188,0.18635,0.18529,0.44563,-0.35886,-0.6794,0.86979,-1.039,-1.2988,-0.15802,-1.1119,-0.147,-1.6956,0.50697,0.66193,-0.63901,-0.58389,-0.07676,-1.6201,-1.5167,-0.022972,0.044421,-0.066847,-0.69691,0.096652,-0.46032,-0.37456,-0.011753,-0.52923,-0.25853,-0.42922,-0.86538,-0.43618,0.50455,-1.4335,0.28232,-1.5582,-1.0921,-1.28,-1.2737,-1.4851,0.065594,-0.47845,0.25592,-1.2512,-0.058572,-0.049742,-0.35506,-0.80912,-1.5544,-0.20802,-0.81555,-0.87563,-1.7315,0.483,-0.9835,0.058101,0.12455,-0.94875,-0.5406,-0.83907,-1.7758,0.19867,-0.022078,-1.1977,0.084463,0.10531,-0.85598,0.31513,-1.4665,-0.95928,-1.4666,-0.61121,-0.39734,-0.85201,-0.41503,-1.9922,-0.82441,-0.57706,-1.0999,-1.0682,-0.72555,-1.8743
-0.65272,0.52707,-0.6986,-1.2484,0.66696,-0.82384,-0.64294,0.10315,-1.1492,-0.77373,-0.0099131,0.79215,-1.0122,-1.0118,-0.27388,-0.2695,-0.64341,-1.5731,-1.4554,0.07342,-0.47539,-0.96554,-1.8544,-0.77654,-0.22037,-1.2206,-0.5874,-0.37269,-1.2838,-0.82068,-1.4772,-0.066602,-0.32137,-1.5875,-0.59621,-0.53483,0.44018,0.48801,-0.98636,0.76541,-1.5392,0.060257,-0.69853,-1.1195,-1.1599,-0.63809,0.86141,-0.12271,-1.3629,0.5576,-1.4589,0.4459,0.17122,-0.096928,-0.90154,-0.73232,-0.49632,-0.19938,0.078413,-0.74003,-1.0989,-0.05825,-0.049335,-0.55849,0.38324,0.51963,-0.69006,0.3711,0.012111,-0.43044,-0.97734,-1.0387,-0.61793,0.6841,-1.1304,-0.28539,-0.83581,-0.24468,-0.7223,-0.35159,0.55687,-0.95003,-1.1269,0.13533,-0.24554,0.66585,0.36626,-0.67519,-1.7796,-0.71079,-1.5416,-1.0193,-0.64994,0.69561,-0.2541,0.43857,0.16948,-0.52675,-1.0696,-1.6379,0.65952,-0.90002,0.33071,-1.2663,-0.38811,-0.11496,0.13295,-0.15581,-0.73966,-0.74428,0.41474,0.39762,-0.69275,-0.80365,-1.6414,-0.3854,-1.5396,-1.6123,-1.1914,-0.37542,-0.40611,0.36073,0.66212,0.086243,-0.78917,-0.80941,-1.8806,-1.0358,0.085451,0.18344,-1.1921,-0.016476,0.30668,-0.89915,-0.8215,-0.14617,0.1862,-0.47186,0.075077,0.22018,-0.065099,0.58944,-0.59224,-0.11924,-0.039065,-0.87794,-0.2569,-0.55651,-0.4319,-0.02351,-0.091555,-1.1201,0.18636,-0.21898,0.012032,0.15412,-0.26117,0.026892,-1.1526,-0.63923,-0.64772,0.57393,0.4449,-0.20322,-0.24002,-0.89142,-1.1128,-0.076419,-0.25422,-0.42002,-1.3272,-0.6714,-0.36632,-0.98809,-0.84911,-0.33138,-0.4824,0.21357,-1.5283,0.17432,0.95314,-0.65378,-0.35389,-0.42914,-0.46459,0.10425,-1.1448,-0.22251,-1.8041,0.031274,-1.2175,0.60514,-0.25148,-0.4541,-0.75682,0.072744,-1.1348,-0.55235,0.30605,-1.2154,-0.63121,-0.021425,-0.94315,-0.37806,-0.4934,-1.0449,-0.70065,0.27085,-0.45932,-0.10887,-1.5202,-1.0785,-1.1874,-1.425,-0.70786,-0.94369,-0.93343,-0.46842,-0.9108,0.73633,-1.2008,-0.58829,-1.2408,-0.8965,-1.4508,-0.80723,-0.010832,-0.33094,-1.7288,0.058148,0.025562,-0.52462,-1.4446,-0.96231,0.37902,-0.47474,0.18925,0.26888,-0.059255,-0.45258,0.083644,0.14133,-0.93154,-0.0043966,0.46113,-0.92917,-0.02901,0.71707,-1.1719,-1.2549,0.52043,-0.25594,0.096769,0.60612,-0.59816,-1.1793
0.78363,-0.32096,-0.89166,-0.38531,-0.74035,0.21322,-0.66766,-0.23493,-0.56604,-0.63976,-0.28763,0.45799,-0.3723,0.030984,0.00069929,-0.17757,-0.0027849,-1.2296,-0.26136,0.21255,-0.55741,-0.6244,0.51125,0.64179,0.35973,-0.52849,-1.1632,0.1366,-0.089029,-1.0182,-0.98125,-1.6635,-0.29225,-1.2133,-1.3355,-1.4088,-0.41717,0.22974,-0.77847,0.12586,-1.2399,0.25054,-0.44369,0.46313,0.041615,-0.39181,-0.2858,-0.59693,-0.60031,-0.66721,0.60015,0.28526,0.041891,-0.07902,0.4524,-1.0095,0.18546,-0.9549,-0.44993,0.18577,-0.23595,0.7751,-1.7089,0.022232,-1.0069,0.095804,-1.1754,-0.7071,-1.1445,-0.59559,-0.13545,-0.6021,0.20318,-0.97224,-0.38819,0.29734,-0.64824,-1.1589,0.13482,-0.20268,0.9196,0.33175,-0.38492,-1.1669,-1.0621,-0.048486,0.75359,-0.6751,-0.53094,-0.36255,-0.68916,-0.21633,-1.149,-0.73443,0.0018413,-1.5251,-0.91959,0.27446,-1.5746,-0.46082,-1.7298,-0.57016,-0.7321,-1.4702,-1.2169,0.08461,-1.3357,-0.91192,0.58375,-0.35494,-1.7244,-0.36326,-1.1391,0.049931,-0.2065,-0.23715,-0.19707,-0.49826,-1.487,0.80272,-0.13379,-1.1086,-1.5051,-1.5618,0.14445,-0.63931,-0.036779,-0.89342,-1.2767,-0.87363,-1.4634,0.35469,-0.49881,-0.13236,0.10675,0.0062543,-1.5711,0.097086,-0.77143,-0.89103,-0.013685,-0.43078,-0.93285,-1.1333,0.93049,-1.8359,-0.085802,-0.7409,-1.1902,-0.78922,-0.53273,-0.64607,-0.13212,-0.061328,-1.6855,-0.22942,-1.4711,-1.6923,0.38592,-1.8291,-0.19341,-0.19941,-1.2149,-0.23209,-1.264,-0.15785,-0.15614,-0.39785,-0.88075,-0.75162,-0.087273,0.071811,-0.49552,-0.67527,-0.37835,0.39895,-1.6734,0.33957,-0.23737,-0.54369,-0.043347,-1.3263,-0.43747,-1.2936,-0.50217,-1.4818,-0.70984,0.19141,-0.84041,0.16083,0.18117,-1.3874,0.2507,0.065157,-1.5894,0.21238,-0.61288,-1.1393,-0.047119,0.28508,0.18703,-0.86727,-0.5101,0.020421,-0.21394,-0.66474,-1.268,-0.75493,-0.89429,0.67131,-1.4967,-1.3683,-0.96284,0.23238,-0.55159,0.43665,-1.4323,-1.0987,-0.6794,-0.55517,0.60672,0.8215,-0.81685,0.054562,0.10311,-0.60401,-0.7038,0.017807,0.0025632,0.045505,-1.1091,0.82641,-0.28635,0.59075,-1.7904,-0.94638,0.27176,-0.12386,-1.6803,-0.11359,-0.98199,-1.2444,-0.90933,-0.38034,-0.79343,-0.022275,0.31895,-1.7857,-0.40517,-0.070242,0.10781,0.052457,0.069902,-1.0665,-0.60392,-1.0009
-0.75324,0.6483,-0.30598,-0.4371,-1.4496,0.84717,-0.90903,0.03907,-0.74425,-0.25668,-0.3767,-0.62626,-1.7575,-1.2448,-0.92924,-0.84486,-0.039394,-0.2596,-1.012,-0.82408,-0.96118,-1.7735,-0.44123,-0.24343,-1.1524,-0.38983,-0.48955,-1.436,-0.46616,-0.80925,-0.12509,-0.17918,-1.0758,-1.571,-0.2174,-1.2959,0.017527,-0.91988,-0.91538,-0.864,-1.2803,-0.41781,-0.70879,-1.2422,0.11193,-1.0357,-1.7341,-0.38906,0.54443,-1.2581,-0.59651,-0.77783,-1.7235,-0.79425,-0.48226,0.43403,-0.84688,-1.0574,-0.23535,-0.03219,-0.69287,-0.067397,-1.7503,-0.23737,-0.93479,-0.95187,-1.3854,-0.11698,-0.11181,-0.19062,-0.67389,-0.67657,-0.48454,-0.13633,-0.14271,-1.3159,0.082954,0.61915,0.36877,0.0069937,0.38477,-1.9006,-0.96188,0.21785,0.1051,0.12389,-0.52575,-0.75529,-0.52253,0.68141,-0.29556,-1.0006,-0.20439,-0.1029,-1.0778,-1.533,-0.41147,0.099332,-0.31768,-1.2092,-0.88374,-1.192,-1.0093,-0.32795,-0.50021,0.33849,-1.4077,-1.5364,-0.16937,0.43879,-1.2538,-0.21289,0.66935,-0.59028,-1.8064,-1.8894,-1.0663,-0.17344,0.23151,-1.2965,-1.1763,-0.024047,-1.3917,-0.35863,-1.4144,-1.1774,-1.6841,-0.514,0.47577,-0.19423,-1.1203,-1.1789,-1.7553,-0.3891,-0.99313,-1.0606,-1.1666,-1.851,-1.7146,-0.98804,-1.3679,-0.49306,-0.277,-1.1664,-1.1692,-0.32537,-0.091207,0.47135,-1.0965,0.80323,-1.5244,-1.2291,-0.64144,0.078982,0.52403,-0.026631,0.10501,-0.45762,-0.7161,-0.89848,-0.76966,-0.12976,0.26164,0.34283,-1.6527,-0.81368,-0.35446,-1.1128,-0.7853,-0.60502,-0.62162,-0.31042,-0.20091,-0.30841,-0.29685,-0.98485,-0.84656,-0.52736,-1.5318,0.059192,-0.26951,-1.3842,-0.48379,0.19671,-0.51386,0.11787,0.02986,0.0086257,-0.34173,0.20525,0.88397,-0.57968,0.37024,-0.55881,-1.448,-0.19809,-1.1982,-0.81924,-0.051841,0.06086,0.40755,-0.78697,-1.6656,-1.76,-0.24103,-0.68471,-1.2429,-0.32175,-1.0727,-1.0564,0.25046,-0.75522,-0.18654,-0.61381,-0.56718,-0.016797,-0.12344,0.70444,-0.039056,-0.37144,-0.37952,-0.75483,0.47591,-0.43285,-1.1373,-0.33376,-1.4156,-0.62204,0.19668,0.52239,0.029773,-1.7729,0.50723,-1.5927,-0.2752,-1.1214,-0.80457,-0.84623,0.40329,-0.61463,-0.55978,-0.26414,-1.538,-0.11316,0.67756,0.23709,0.71521,-0.048221,-0.16981,-0.56501,0.0050835,-0.15488,-0.54055,-1.4561,-0.89372,0.15335
-0.86187,-1.4112,-1.1856,0.10811,0.14877,0.040458,0.52824,0.39538,-1.1546,0.32779,0.058671,-1.0216,-1.0204,-0.48392,-1.1985,-0.42269,0.16045,-0.5039,0.68761,-1.5384,-1.7586,-0.066873,0.0021043,-1.2042,-0.84133,-0.75444,0.023672,-1.11,-0.43912,-0.45297,-1.197,0.46381,0.11416,-0.37363,-1.5972,0.27544,-0.84752,-0.1144,-0.50442,-0.20655,-0.77221,-1.0338,-0.4705,0.76956,-0.27165,-0.52955,-0.96095,-0.46786,-0.93042,-0.60817,-0.61769,-0.34989,-0.33779,-1.0487,-0.11022,-0.58899,0.94174,-1.5504,-0.57637,-0.18612,-1.1375,-0.20923,-0.87932,0.06094,-1.5068,-1.1,-0.028023,-0.95805,-0.45168,-1.4987,-0.36492,-0.50225,-1.2489,0.44889,-0.86011,-0.61076,-0.64097,-1.47,-0.081624,-0.32249,0.18317,-0.41641,-0.10088,0.37155,-0.48821,-1.1046,-1.2057,-0.58881,0.73677,0.35449,-1.0886,-1.8242,-0.65104,-1.2308,0.3438,-0.11712,0.70617,-0.72668,-0.2224,0.65586,0.47186,0.55058,-1.0947,-1.2111,-1.2628,-0.80614,-1.5064,0.33632,0.21856,-0.19862,-0.11645,-1.1822,0.083458,0.22368,-1.384,-1.7394,-0.4591,-0.45932,0.28709,-0.13132,-0.75737,-0.30873,-0.6989,-0.29938,-0.74563,-0.022641,-0.90601,0.6646,-0.11056,-0.45604,-0.71602,-0.98048,-0.53661,-1.61,-0.035846,-1.6437,-0.6307,-0.65804,0.094063,0.25834,0.0002871,-0.97387,-1.1679,-0.55451,-1.5634,-1.65,0.041779,-1.3488,-0.41725,-0.88632,-0.85611,-0.50735,0.29908,-0.74594,-1.5763,-1.2767,-0.61167,-1.0486,-0.62875,-0.71916,-0.13796,0.20032,-0.44148,-1.0639,-0.28199,0.3675,-0.98437,-1.0623,-0.45664,-0.69569,-1.1152,-0.2197,-0.35387,0.10027,-1.6338,-1.1201,-1.2123,-1.3555,0.43911,0.54689,0.039152,-0.99119,-0.58237,0.3937,-0.16051,-0.70571,-1.1375,0.36981,-1.4525,-0.25138,-1.3337,0.3168,-0.92142,-0.32746,-0.21935,-0.30658,-0.43543,-1.3307,0.83985,0.76833,-0.16168,-0.40618,-1.621,-0.98082,-0.53932,-0.92708,-1.65,-1.0058,0.26394,-0.29461,-0.96547,-0.69007,0.16658,-0.91746,-0.22927,-0.23944,0.4074,-1.0155,-0.87164,-0.90853,-0.05735,-1.2186,-1.5781,-0.12112,-0.75721,-1.2557,0.15642,-0.80516,-0.49806,-0.45829,-0.16424,-0.92765,0.048526,-0.54287,-0.9701,0.25411,-0.65996,-1.0821,0.11573,-0.85403,0.0036828,0.84266,-0.83964,-0.91767,-0.55218,-0.36186,0.013002,-0.15409,-0.78934,-0.082713,-0.32303,-0.38247,-1.0253,-0.53194,-0.89152,0.38029
-0.26155,-0.50964,0.21619,-0.81139,0.031973,-0.67277,0.039102,0.023629,-0.074683,-0.15296,0.17202,0.092062,0.0075998,0.52147,-0.39927,0.82763,0.11232,0.62765,-0.49744,-1.6802,-0.037147,0.41461,-0.95534,0.38833,-0.78534,-0.62536,0.0063656,0.00042537,-0.037181,-0.26166,-0.86519,-0.46829,0.20548,-1.5956,0.36232,-1.0002,-1.0685,-0.91198,-0.87839,-0.25721,-0.50914,0.44102,-0.032329,-0.86924,-0.36112,-0.75531,-1.6198,-0.31188,0.22426,-0.86436,0.25517,0.53066,-0.73025,-0.65646,-0.57639,-0.99774,-0.37044,-1.8673,-0.26641,-0.18219,0.4937,-1.3081,-0.63354,0.028634,-0.62528,0.50852,0.72333,0.55995,-1.754,-0.96788,-0.18465,-0.60208,0.37547,-1.0769,-1.6548,0.06006,0.10497,-0.90377,-0.43713,-1.577,-0.39196,-0.23803,-1.8993,-0.95906,-0.76446,-0.70133,-0.69551,-0.73699,-1.4148,-0.024941,-0.49294,-1.3481,-1.4464,0.31369,-1.1786,-0.481,-0.57236,-1.19,-0.44142,0.61219,0.1902,-1.7818,-0.48417,-1.1451,-0.86171,-0.8406,-0.67841,-0.80088,-1.1597,-0.37937,-0.96969,-1.1343,0.26451,-0.32909,0.29972,-0.97276,-1.2472,-0.97312,-0.88562,-1.4158,0.37436,-0.56382,-1.4685,-1.2156,0.6328,-0.48637,-0.59139,-0.10823,-0.068529,-1.5808,0.20318,-1.1164,-0.13913,-1.3115,-0.29985,-1.1583,-0.51449,-0.15894,0.27474,-1.1529,0.50733,-1.0075,-1.3941,0.14425,-1.1919,-1.5778,-1.2754,-0.60878,-1.5101,-1.233,0.17252,0.7983,0.54593,-0.53509,-0.34332,-1.8711,-0.16878,-0.49827,-0.566,-0.83162,-1.3037,-0.41983,-0.39468,-1.1056,-0.42396,0.7609,-0.40637,-1.098,-0.43145,-0.89818,-0.93794,-0.42001,-0.81336,-0.73495,0.23719,0.54969,-1.3792,-0.31022,-0.96833,-0.40741,0.54426,-1.4038,-0.38427,-1.6275,-1.2104,-0.88664,-1.1522,-0.5703,-0.13943,-1.0901,-0.96472,0.49938,-0.077415,-0.35709,-0.46757,-0.87207,0.10888,0.76878,0.035984,-1.363,-0.061908,-0.73662,-0.027604,-0.38158,-0.032354,0.79447,-0.69257,-1.3324,-1.2127,-0.48193,0.15332,-0.83059,-1.2162,0.066333,0.39773,-1.6811,0.032324,0.17909,-0.74501,-1.4071,0.22542,-0.11999,0.44035,-0.0019081,-1.4805,0.083076,-0.5513,-0.60645,-0.20575,-0.47932,0.44559,0.14936,-0.24477,-0.97715,-1.2549,-0.90817,-1.1086,-0.5577,-1.472,-0.8051,-0.55659,-0.34989,0.24206,0.74899,0.19931,-0.42606,-0.39908,-1.1114,-0.35431,-0.83459,-1.459,-0.083728,-0.69364,0.021581,-0.00041851,0.3406
-0.30308,-0.66245,0.22848,0.32595,-0.79194,-1.3709,0.70606,0.33977,0.4961,-1.3053,-1.6443,0.018557,-1.4462,-0.43846,-0.18168,-1.0874,-1.1056,-0.96799,-0.95234,0.67165,-1.0523,-0.80259,-0.072027,-0.23352,-0.57756,-1.0305
0.0056881,-0.89293,-0.36543,-1.0555,-1.5024,-0.8452,0.43669,-1.0257,-0.68985,-0.26305,-0.30198,-0.77989,-0.95184,-0.46362,0.32248,-1.1725,-0.27871,0.66057,-0.61701,-1.416,0.27633,0.069205,-0.97883,0.59924,-1.0148,0.51267
-0.17639,-0.57978,-0.189,-0.73637,-0.68865,-1.2575,-0.21766,-0.98887,-0.31109,-0.076551,-0.99765,-0.36605,0.0051627,0.31255,-0.25831,-1.1034,0.079014,-0.79206,-0.25006,-0.94507,-0.81167,-1.6124,-0.21316,-0.77265,-0.60588,0.44998
-0.48912,-1.0067,-0.61944,0.046936,-1.0128,0.44125,-1.2068,-1.1584,-0.47181,-0.86267,-0.95084,-0.59125,-1.2979,-0.15954,-0.49864,-1.0877,-0.46621,-1.4482,-0.517,-0.82237,-0.0021149,-1.3971,-1.0063,-0.44305,-1.7541,-0.67262
0.051742,0.29142,-0.21236,-0.41342,-0.77565,-1.2691,0.20764,0.34129,-0.13859,-0.12053,0.081424,-1.3208,-0.92717,-1.4669,-0.88722,-0.9884,0.23619,-0.7234,-0.38701,0.23693,-0.67172,-0.36033,-1.3524,-1.0749,-0.19653,-1.5644
-1.1622,-0.80964,-1.1163,-0.82329,-1.3542,0.46239,-0.8817,-1.4943,-1.4186,-1.3329,-0.35304,-0.95331,-0.43304,-1.0143,-0.72136,0.30605,0.14184,-0.57102,-0.39241,0.080307,-0.69132,-0.0088226,0.28904,-1.4459,-1.3451,-1.0914
-1.5419,-0.98824,0.20117,-0.81804,0.0096022,0.0066835,-0.75513,-1.1336,-0.83212,-1.124,-0.64792,-0.21642,-0.91483,0.21314,0.73188,0.0014226,0.77929,-0.090343,-1.1593,-1.7601,0.5837,0.0060885,-0.27984,-0.10875,-0.66183,-1.0402
-1.0987,-0.36101,-0.78493,-1.5325,0.48447,-0.55105,-0.21112,0.010054,-1.28,-0.93118,0.83428,-1.5472,-0.35802,-0.56167,-0.14618,0.0093046,-0.95667,-0.41348,-1.3699,-1.453,-0.84952,-1.068,0.83299,-1.3053,-0.33273,-0.31498
-1.7031,0.68504,-1.1736,-1.0813,-1.6346,-1.0244,0.26211,0.21866,-0.052073,-0.19763,0.14858,-1.1425,0.63126,0.093581,-0.040943,-0.52459,0.023501,0.35727,-0.87362,-0.93461,-0.15153,-0.55274,0.49086,-0.086192,-0.87254,-0.24909
0.0041452,-1.4229,-0.17409,-1.0543,-1.1954,-1.1507,0.36833,0.83867,-0.83301,0.40969,-0.17094,-1.0981,-0.69818,-0.18739,-1.0459,-1.1015,-0.6785,-1.2895,0.45461,0.2527,-0.018965,-1.2399,-1.4418,-1.1003,-1.4196,0.079549
